Language model created by QuickLM on Tue Nov  3 09:56:36 EST 2015
Copyright (c) 1996-2010 Carnegie Mellon University and Alexander I. Rudnicky

The model is in standard ARPA format, designed by Doug Paul while he was at MITRE.

The code that was used to produce this language model is available in Open Source.
Please visit http://www.speech.cs.cmu.edu/tools/ for more information

The (fixed) discount mass is 0.5. The backoffs are computed using the ratio method.
This model based on a corpus of 98 sentences and 100 words

\data\
ngram 1=100
ngram 2=196
ngram 3=98

\1-grams:
-0.7782 </s> -0.3010
-0.7782 <s> -0.2218
-2.7694 ACTION -0.2218
-2.7694 ADENINE -0.2218
-2.7694 ALANINE -0.2218
-2.7694 ALIPHATIC -0.2218
-2.7694 AMINOACID -0.2218
-2.7694 ANALYTICAL_COMPONENT -0.2218
-2.7694 ANION -0.2218
-2.7694 AREA -0.2218
-2.7694 AROMATIC -0.2218
-2.7694 ATOM -0.2218
-2.7694 ATOMID -0.2218
-2.7694 ATTRIBUTE -0.2218
-2.7694 AXIS -0.2218
-2.7694 B-FACTOR -0.2218
-2.7694 BIOLOGICAL_COMPONENT -0.2218
-2.7694 BIOPHYSICAL_PROPERTY -0.2218
-2.7694 BLACK -0.2218
-2.7694 BLUE -0.2218
-2.7694 CARTOON -0.2218
-2.7694 CATION -0.2218
-2.7694 CHAIN -0.2218
-2.7694 CHARGE -0.2218
-2.7694 COLOR -0.2218
-2.7694 COLORS -0.2218
-2.7694 CYAN -0.2218
-2.7694 CYTOSINE -0.2218
-2.7694 DNA -0.2218
-2.7694 EXPERIMENTAL_PROPERTY -0.2218
-2.7694 GEOMETRICAL_PROPERTY -0.2218
-2.7694 GRAPHIC -0.2218
-2.7694 GREEN -0.2218
-2.7694 GUANINE -0.2218
-2.7694 HIDE -0.2218
-2.7694 HIGHLIGHT -0.2218
-2.7694 HISTIDINEP -0.2218
-2.7694 HISTOGRAM -0.2218
-2.7694 HYDROPHILIC -0.2218
-2.7694 HYDROPHOBIC -0.2218
-2.7694 HYDROPHOBICITY -0.2218
-2.7694 IDENTIFIER -0.2218
-2.7694 ION -0.2218
-2.7694 LARGE -0.2218
-2.7694 LIGAND -0.2218
-2.7694 LINES -0.2218
-2.7694 LINE_PLOT -0.2218
-2.7694 MAGENTA -0.2218
-2.7694 MEMBRANE -0.2218
-2.7694 MODEL -0.2218
-2.7694 MOLECULE -0.2218
-2.7694 NEGATIVE -0.2218
-2.7694 NEUTRAL -0.2218
-2.7694 NON -0.2218
-2.7694 NUCLEOTID -0.2218
-2.7694 OBJECT -0.2218
-2.7694 PHARMACOPHORE -0.2218
-2.7694 PIE -0.2218
-2.7694 POINT -0.2218
-2.7694 POLAR -0.2218
-2.7694 POLARITY -0.2218
-2.7694 POSITION -0.2218
-2.7694 POSITIVE -0.2218
-2.7694 PRIMARY_STRUCTURE -0.2218
-2.7694 PROPERTY -0.2218
-2.7694 PROTEIN -0.2218
-2.7694 RADIUS -0.2218
-2.7694 RED -0.2218
-2.7694 REFININGFEATURE -0.2218
-2.7694 REPRESENTATION -0.2218
-2.7694 RESID -0.2218
-2.7694 RESIDUE -0.2218
-2.7694 RIBBON -0.2218
-2.7694 SCATTER_PLOT -0.2218
-2.7694 SECONDARY_STRUCTURE -0.2218
-2.7694 SELECT -0.2218
-2.7694 SELECTION -0.2218
-2.7694 SHORTNAME -0.2218
-2.7694 SHOW -0.2218
-2.7694 SIDECHAINSTRUCTURE -0.2218
-2.7694 SIZE -0.2218
-2.7694 SMALL -0.2218
-2.7694 SOLVENT -0.2218
-2.7694 STICKS -0.2218
-2.7694 STRUCTURE -0.2218
-2.7694 SURFACE -0.2218
-2.7694 TERTIARY_STRUCTURE -0.2218
-2.7694 THYMINE -0.2218
-2.7694 TINY -0.2218
-2.7694 URACILE -0.2218
-2.7694 VALUE -0.2218
-2.7694 VDW -0.2218
-2.7694 VISUAL_PROPERTY -0.2218
-2.7694 VISUAL_REPRESENTATION -0.2218
-2.7694 WATER -0.2218
-2.7694 WHITE -0.2218
-2.7694 X -0.2218
-2.7694 Y -0.2218
-2.7694 YELLOW -0.2218
-2.7694 Z -0.2218

\2-grams:
-2.2923 <s> ACTION 0.0000
-2.2923 <s> ADENINE 0.0000
-2.2923 <s> ALANINE 0.0000
-2.2923 <s> ALIPHATIC 0.0000
-2.2923 <s> AMINOACID 0.0000
-2.2923 <s> ANALYTICAL_COMPONENT 0.0000
-2.2923 <s> ANION 0.0000
-2.2923 <s> AREA 0.0000
-2.2923 <s> AROMATIC 0.0000
-2.2923 <s> ATOM 0.0000
-2.2923 <s> ATOMID 0.0000
-2.2923 <s> ATTRIBUTE 0.0000
-2.2923 <s> AXIS 0.0000
-2.2923 <s> B-FACTOR 0.0000
-2.2923 <s> BIOLOGICAL_COMPONENT 0.0000
-2.2923 <s> BIOPHYSICAL_PROPERTY 0.0000
-2.2923 <s> BLACK 0.0000
-2.2923 <s> BLUE 0.0000
-2.2923 <s> CARTOON 0.0000
-2.2923 <s> CATION 0.0000
-2.2923 <s> CHAIN 0.0000
-2.2923 <s> CHARGE 0.0000
-2.2923 <s> COLOR 0.0000
-2.2923 <s> COLORS 0.0000
-2.2923 <s> CYAN 0.0000
-2.2923 <s> CYTOSINE 0.0000
-2.2923 <s> DNA 0.0000
-2.2923 <s> EXPERIMENTAL_PROPERTY 0.0000
-2.2923 <s> GEOMETRICAL_PROPERTY 0.0000
-2.2923 <s> GRAPHIC 0.0000
-2.2923 <s> GREEN 0.0000
-2.2923 <s> GUANINE 0.0000
-2.2923 <s> HIDE 0.0000
-2.2923 <s> HIGHLIGHT 0.0000
-2.2923 <s> HISTIDINEP 0.0000
-2.2923 <s> HISTOGRAM 0.0000
-2.2923 <s> HYDROPHILIC 0.0000
-2.2923 <s> HYDROPHOBIC 0.0000
-2.2923 <s> HYDROPHOBICITY 0.0000
-2.2923 <s> IDENTIFIER 0.0000
-2.2923 <s> ION 0.0000
-2.2923 <s> LARGE 0.0000
-2.2923 <s> LIGAND 0.0000
-2.2923 <s> LINES 0.0000
-2.2923 <s> LINE_PLOT 0.0000
-2.2923 <s> MAGENTA 0.0000
-2.2923 <s> MEMBRANE 0.0000
-2.2923 <s> MODEL 0.0000
-2.2923 <s> MOLECULE 0.0000
-2.2923 <s> NEGATIVE 0.0000
-2.2923 <s> NEUTRAL 0.0000
-2.2923 <s> NON 0.0000
-2.2923 <s> NUCLEOTID 0.0000
-2.2923 <s> OBJECT 0.0000
-2.2923 <s> PHARMACOPHORE 0.0000
-2.2923 <s> PIE 0.0000
-2.2923 <s> POINT 0.0000
-2.2923 <s> POLAR 0.0000
-2.2923 <s> POLARITY 0.0000
-2.2923 <s> POSITION 0.0000
-2.2923 <s> POSITIVE 0.0000
-2.2923 <s> PRIMARY_STRUCTURE 0.0000
-2.2923 <s> PROPERTY 0.0000
-2.2923 <s> PROTEIN 0.0000
-2.2923 <s> RADIUS 0.0000
-2.2923 <s> RED 0.0000
-2.2923 <s> REFININGFEATURE 0.0000
-2.2923 <s> REPRESENTATION 0.0000
-2.2923 <s> RESID 0.0000
-2.2923 <s> RESIDUE 0.0000
-2.2923 <s> RIBBON 0.0000
-2.2923 <s> SCATTER_PLOT 0.0000
-2.2923 <s> SECONDARY_STRUCTURE 0.0000
-2.2923 <s> SELECT 0.0000
-2.2923 <s> SELECTION 0.0000
-2.2923 <s> SHORTNAME 0.0000
-2.2923 <s> SHOW 0.0000
-2.2923 <s> SIDECHAINSTRUCTURE 0.0000
-2.2923 <s> SIZE 0.0000
-2.2923 <s> SMALL 0.0000
-2.2923 <s> SOLVENT 0.0000
-2.2923 <s> STICKS 0.0000
-2.2923 <s> STRUCTURE 0.0000
-2.2923 <s> SURFACE 0.0000
-2.2923 <s> TERTIARY_STRUCTURE 0.0000
-2.2923 <s> THYMINE 0.0000
-2.2923 <s> TINY 0.0000
-2.2923 <s> URACILE 0.0000
-2.2923 <s> VALUE 0.0000
-2.2923 <s> VDW 0.0000
-2.2923 <s> VISUAL_PROPERTY 0.0000
-2.2923 <s> VISUAL_REPRESENTATION 0.0000
-2.2923 <s> WATER 0.0000
-2.2923 <s> WHITE 0.0000
-2.2923 <s> X 0.0000
-2.2923 <s> Y 0.0000
-2.2923 <s> YELLOW 0.0000
-2.2923 <s> Z 0.0000
-0.3010 ACTION </s> -0.3010
-0.3010 ADENINE </s> -0.3010
-0.3010 ALANINE </s> -0.3010
-0.3010 ALIPHATIC </s> -0.3010
-0.3010 AMINOACID </s> -0.3010
-0.3010 ANALYTICAL_COMPONENT </s> -0.3010
-0.3010 ANION </s> -0.3010
-0.3010 AREA </s> -0.3010
-0.3010 AROMATIC </s> -0.3010
-0.3010 ATOM </s> -0.3010
-0.3010 ATOMID </s> -0.3010
-0.3010 ATTRIBUTE </s> -0.3010
-0.3010 AXIS </s> -0.3010
-0.3010 B-FACTOR </s> -0.3010
-0.3010 BIOLOGICAL_COMPONENT </s> -0.3010
-0.3010 BIOPHYSICAL_PROPERTY </s> -0.3010
-0.3010 BLACK </s> -0.3010
-0.3010 BLUE </s> -0.3010
-0.3010 CARTOON </s> -0.3010
-0.3010 CATION </s> -0.3010
-0.3010 CHAIN </s> -0.3010
-0.3010 CHARGE </s> -0.3010
-0.3010 COLOR </s> -0.3010
-0.3010 COLORS </s> -0.3010
-0.3010 CYAN </s> -0.3010
-0.3010 CYTOSINE </s> -0.3010
-0.3010 DNA </s> -0.3010
-0.3010 EXPERIMENTAL_PROPERTY </s> -0.3010
-0.3010 GEOMETRICAL_PROPERTY </s> -0.3010
-0.3010 GRAPHIC </s> -0.3010
-0.3010 GREEN </s> -0.3010
-0.3010 GUANINE </s> -0.3010
-0.3010 HIDE </s> -0.3010
-0.3010 HIGHLIGHT </s> -0.3010
-0.3010 HISTIDINEP </s> -0.3010
-0.3010 HISTOGRAM </s> -0.3010
-0.3010 HYDROPHILIC </s> -0.3010
-0.3010 HYDROPHOBIC </s> -0.3010
-0.3010 HYDROPHOBICITY </s> -0.3010
-0.3010 IDENTIFIER </s> -0.3010
-0.3010 ION </s> -0.3010
-0.3010 LARGE </s> -0.3010
-0.3010 LIGAND </s> -0.3010
-0.3010 LINES </s> -0.3010
-0.3010 LINE_PLOT </s> -0.3010
-0.3010 MAGENTA </s> -0.3010
-0.3010 MEMBRANE </s> -0.3010
-0.3010 MODEL </s> -0.3010
-0.3010 MOLECULE </s> -0.3010
-0.3010 NEGATIVE </s> -0.3010
-0.3010 NEUTRAL </s> -0.3010
-0.3010 NON </s> -0.3010
-0.3010 NUCLEOTID </s> -0.3010
-0.3010 OBJECT </s> -0.3010
-0.3010 PHARMACOPHORE </s> -0.3010
-0.3010 PIE </s> -0.3010
-0.3010 POINT </s> -0.3010
-0.3010 POLAR </s> -0.3010
-0.3010 POLARITY </s> -0.3010
-0.3010 POSITION </s> -0.3010
-0.3010 POSITIVE </s> -0.3010
-0.3010 PRIMARY_STRUCTURE </s> -0.3010
-0.3010 PROPERTY </s> -0.3010
-0.3010 PROTEIN </s> -0.3010
-0.3010 RADIUS </s> -0.3010
-0.3010 RED </s> -0.3010
-0.3010 REFININGFEATURE </s> -0.3010
-0.3010 REPRESENTATION </s> -0.3010
-0.3010 RESID </s> -0.3010
-0.3010 RESIDUE </s> -0.3010
-0.3010 RIBBON </s> -0.3010
-0.3010 SCATTER_PLOT </s> -0.3010
-0.3010 SECONDARY_STRUCTURE </s> -0.3010
-0.3010 SELECT </s> -0.3010
-0.3010 SELECTION </s> -0.3010
-0.3010 SHORTNAME </s> -0.3010
-0.3010 SHOW </s> -0.3010
-0.3010 SIDECHAINSTRUCTURE </s> -0.3010
-0.3010 SIZE </s> -0.3010
-0.3010 SMALL </s> -0.3010
-0.3010 SOLVENT </s> -0.3010
-0.3010 STICKS </s> -0.3010
-0.3010 STRUCTURE </s> -0.3010
-0.3010 SURFACE </s> -0.3010
-0.3010 TERTIARY_STRUCTURE </s> -0.3010
-0.3010 THYMINE </s> -0.3010
-0.3010 TINY </s> -0.3010
-0.3010 URACILE </s> -0.3010
-0.3010 VALUE </s> -0.3010
-0.3010 VDW </s> -0.3010
-0.3010 VISUAL_PROPERTY </s> -0.3010
-0.3010 VISUAL_REPRESENTATION </s> -0.3010
-0.3010 WATER </s> -0.3010
-0.3010 WHITE </s> -0.3010
-0.3010 X </s> -0.3010
-0.3010 Y </s> -0.3010
-0.3010 YELLOW </s> -0.3010
-0.3010 Z </s> -0.3010

\3-grams:
-0.3010 <s> ACTION </s>
-0.3010 <s> ADENINE </s>
-0.3010 <s> ALANINE </s>
-0.3010 <s> ALIPHATIC </s>
-0.3010 <s> AMINOACID </s>
-0.3010 <s> ANALYTICAL_COMPONENT </s>
-0.3010 <s> ANION </s>
-0.3010 <s> AREA </s>
-0.3010 <s> AROMATIC </s>
-0.3010 <s> ATOM </s>
-0.3010 <s> ATOMID </s>
-0.3010 <s> ATTRIBUTE </s>
-0.3010 <s> AXIS </s>
-0.3010 <s> B-FACTOR </s>
-0.3010 <s> BIOLOGICAL_COMPONENT </s>
-0.3010 <s> BIOPHYSICAL_PROPERTY </s>
-0.3010 <s> BLACK </s>
-0.3010 <s> BLUE </s>
-0.3010 <s> CARTOON </s>
-0.3010 <s> CATION </s>
-0.3010 <s> CHAIN </s>
-0.3010 <s> CHARGE </s>
-0.3010 <s> COLOR </s>
-0.3010 <s> COLORS </s>
-0.3010 <s> CYAN </s>
-0.3010 <s> CYTOSINE </s>
-0.3010 <s> DNA </s>
-0.3010 <s> EXPERIMENTAL_PROPERTY </s>
-0.3010 <s> GEOMETRICAL_PROPERTY </s>
-0.3010 <s> GRAPHIC </s>
-0.3010 <s> GREEN </s>
-0.3010 <s> GUANINE </s>
-0.3010 <s> HIDE </s>
-0.3010 <s> HIGHLIGHT </s>
-0.3010 <s> HISTIDINEP </s>
-0.3010 <s> HISTOGRAM </s>
-0.3010 <s> HYDROPHILIC </s>
-0.3010 <s> HYDROPHOBIC </s>
-0.3010 <s> HYDROPHOBICITY </s>
-0.3010 <s> IDENTIFIER </s>
-0.3010 <s> ION </s>
-0.3010 <s> LARGE </s>
-0.3010 <s> LIGAND </s>
-0.3010 <s> LINES </s>
-0.3010 <s> LINE_PLOT </s>
-0.3010 <s> MAGENTA </s>
-0.3010 <s> MEMBRANE </s>
-0.3010 <s> MODEL </s>
-0.3010 <s> MOLECULE </s>
-0.3010 <s> NEGATIVE </s>
-0.3010 <s> NEUTRAL </s>
-0.3010 <s> NON </s>
-0.3010 <s> NUCLEOTID </s>
-0.3010 <s> OBJECT </s>
-0.3010 <s> PHARMACOPHORE </s>
-0.3010 <s> PIE </s>
-0.3010 <s> POINT </s>
-0.3010 <s> POLAR </s>
-0.3010 <s> POLARITY </s>
-0.3010 <s> POSITION </s>
-0.3010 <s> POSITIVE </s>
-0.3010 <s> PRIMARY_STRUCTURE </s>
-0.3010 <s> PROPERTY </s>
-0.3010 <s> PROTEIN </s>
-0.3010 <s> RADIUS </s>
-0.3010 <s> RED </s>
-0.3010 <s> REFININGFEATURE </s>
-0.3010 <s> REPRESENTATION </s>
-0.3010 <s> RESID </s>
-0.3010 <s> RESIDUE </s>
-0.3010 <s> RIBBON </s>
-0.3010 <s> SCATTER_PLOT </s>
-0.3010 <s> SECONDARY_STRUCTURE </s>
-0.3010 <s> SELECT </s>
-0.3010 <s> SELECTION </s>
-0.3010 <s> SHORTNAME </s>
-0.3010 <s> SHOW </s>
-0.3010 <s> SIDECHAINSTRUCTURE </s>
-0.3010 <s> SIZE </s>
-0.3010 <s> SMALL </s>
-0.3010 <s> SOLVENT </s>
-0.3010 <s> STICKS </s>
-0.3010 <s> STRUCTURE </s>
-0.3010 <s> SURFACE </s>
-0.3010 <s> TERTIARY_STRUCTURE </s>
-0.3010 <s> THYMINE </s>
-0.3010 <s> TINY </s>
-0.3010 <s> URACILE </s>
-0.3010 <s> VALUE </s>
-0.3010 <s> VDW </s>
-0.3010 <s> VISUAL_PROPERTY </s>
-0.3010 <s> VISUAL_REPRESENTATION </s>
-0.3010 <s> WATER </s>
-0.3010 <s> WHITE </s>
-0.3010 <s> X </s>
-0.3010 <s> Y </s>
-0.3010 <s> YELLOW </s>
-0.3010 <s> Z </s>

\end\
